digraph Tree {
node [shape=box, style="rounded", color="black", fontname="helvetica"] ;
edge [fontname="helvetica"] ;
0 [label="annual_anomaly <= 0.7\nsquared_error = 0.5\nsamples = 270\nvalue = 0.6"] ;
1 [label="annual_anomaly <= 0.0\nsquared_error = 0.2\nsamples = 154\nvalue = 0.1"] ;
0 -> 1 [labeldistance=2.5, labelangle=45, headlabel="True"] ;
2 [label="annual_anomaly <= -0.6\nsquared_error = 0.1\nsamples = 51\nvalue = -0.3"] ;
1 -> 2 ;
3 [label="annual_anomaly <= -1.2\nsquared_error = 0.2\nsamples = 8\nvalue = -1.1"] ;
2 -> 3 ;
4 [label="Year <= 1970.5\nsquared_error = 0.1\nsamples = 2\nvalue = -1.7"] ;
3 -> 4 ;
5 [label="squared_error = 0.0\nsamples = 1\nvalue = -1.3"] ;
4 -> 5 ;
6 [label="squared_error = 0.0\nsamples = 1\nvalue = -1.9"] ;
4 -> 6 ;
7 [label="annual_anomaly <= -0.8\nsquared_error = 0.0\nsamples = 6\nvalue = -0.9"] ;
3 -> 7 ;
8 [label="squared_error = 0.0\nsamples = 4\nvalue = -0.9"] ;
7 -> 8 ;
9 [label="squared_error = 0.0\nsamples = 2\nvalue = -0.7"] ;
7 -> 9 ;
10 [label="annual_anomaly <= -0.2\nsquared_error = 0.0\nsamples = 43\nvalue = -0.2"] ;
2 -> 10 ;
11 [label="annual_anomaly <= -0.3\nsquared_error = 0.0\nsamples = 19\nvalue = -0.3"] ;
10 -> 11 ;
12 [label="squared_error = 0.0\nsamples = 10\nvalue = -0.4"] ;
11 -> 12 ;
13 [label="squared_error = 0.0\nsamples = 9\nvalue = -0.3"] ;
11 -> 13 ;
14 [label="annual_anomaly <= -0.1\nsquared_error = 0.0\nsamples = 24\nvalue = -0.1"] ;
10 -> 14 ;
15 [label="squared_error = 0.0\nsamples = 13\nvalue = -0.2"] ;
14 -> 15 ;
16 [label="squared_error = 0.0\nsamples = 11\nvalue = -0.1"] ;
14 -> 16 ;
17 [label="annual_anomaly <= 0.4\nsquared_error = 0.0\nsamples = 103\nvalue = 0.4"] ;
1 -> 17 ;
18 [label="annual_anomaly <= 0.2\nsquared_error = 0.0\nsamples = 52\nvalue = 0.2"] ;
17 -> 18 ;
19 [label="annual_anomaly <= 0.1\nsquared_error = 0.0\nsamples = 25\nvalue = 0.1"] ;
18 -> 19 ;
20 [label="squared_error = 0.0\nsamples = 8\nvalue = 0.0"] ;
19 -> 20 ;
21 [label="squared_error = 0.0\nsamples = 17\nvalue = 0.1"] ;
19 -> 21 ;
22 [label="annual_anomaly <= 0.3\nsquared_error = 0.0\nsamples = 27\nvalue = 0.3"] ;
18 -> 22 ;
23 [label="squared_error = 0.0\nsamples = 14\nvalue = 0.2"] ;
22 -> 23 ;
24 [label="squared_error = 0.0\nsamples = 13\nvalue = 0.3"] ;
22 -> 24 ;
25 [label="annual_anomaly <= 0.5\nsquared_error = 0.0\nsamples = 51\nvalue = 0.5"] ;
17 -> 25 ;
26 [label="annual_anomaly <= 0.4\nsquared_error = 0.0\nsamples = 19\nvalue = 0.4"] ;
25 -> 26 ;
27 [label="squared_error = 0.0\nsamples = 9\nvalue = 0.4"] ;
26 -> 27 ;
28 [label="squared_error = 0.0\nsamples = 10\nvalue = 0.5"] ;
26 -> 28 ;
29 [label="annual_anomaly <= 0.6\nsquared_error = 0.0\nsamples = 32\nvalue = 0.6"] ;
25 -> 29 ;
30 [label="squared_error = 0.0\nsamples = 10\nvalue = 0.5"] ;
29 -> 30 ;
31 [label="squared_error = 0.0\nsamples = 22\nvalue = 0.6"] ;
29 -> 31 ;
32 [label="annual_anomaly <= 1.3\nsquared_error = 0.2\nsamples = 116\nvalue = 1.2"] ;
0 -> 32 [labeldistance=2.5, labelangle=-45, headlabel="False"] ;
33 [label="annual_anomaly <= 1.0\nsquared_error = 0.0\nsamples = 72\nvalue = 0.9"] ;
32 -> 33 ;
34 [label="annual_anomaly <= 0.8\nsquared_error = 0.0\nsamples = 41\nvalue = 0.8"] ;
33 -> 34 ;
35 [label="annual_anomaly <= 0.7\nsquared_error = 0.0\nsamples = 25\nvalue = 0.8"] ;
34 -> 35 ;
36 [label="squared_error = 0.0\nsamples = 9\nvalue = 0.7"] ;
35 -> 36 ;
37 [label="squared_error = 0.0\nsamples = 16\nvalue = 0.8"] ;
35 -> 37 ;
38 [label="annual_anomaly <= 0.9\nsquared_error = 0.0\nsamples = 16\nvalue = 0.9"] ;
34 -> 38 ;
39 [label="squared_error = 0.0\nsamples = 5\nvalue = 0.9"] ;
38 -> 39 ;
40 [label="squared_error = 0.0\nsamples = 11\nvalue = 0.9"] ;
38 -> 40 ;
41 [label="annual_anomaly <= 1.1\nsquared_error = 0.0\nsamples = 31\nvalue = 1.1"] ;
33 -> 41 ;
42 [label="annual_anomaly <= 1.0\nsquared_error = 0.0\nsamples = 16\nvalue = 1.0"] ;
41 -> 42 ;
43 [label="squared_error = 0.0\nsamples = 8\nvalue = 1.0"] ;
42 -> 43 ;
44 [label="squared_error = 0.0\nsamples = 8\nvalue = 1.1"] ;
42 -> 44 ;
45 [label="annual_anomaly <= 1.2\nsquared_error = 0.0\nsamples = 15\nvalue = 1.2"] ;
41 -> 45 ;
46 [label="squared_error = 0.0\nsamples = 9\nvalue = 1.2"] ;
45 -> 46 ;
47 [label="squared_error = 0.0\nsamples = 6\nvalue = 1.3"] ;
45 -> 47 ;
48 [label="annual_anomaly <= 1.9\nsquared_error = 0.1\nsamples = 44\nvalue = 1.6"] ;
32 -> 48 ;
49 [label="annual_anomaly <= 1.5\nsquared_error = 0.0\nsamples = 35\nvalue = 1.5"] ;
48 -> 49 ;
50 [label="annual_anomaly <= 1.4\nsquared_error = 0.0\nsamples = 22\nvalue = 1.4"] ;
49 -> 50 ;
51 [label="squared_error = 0.0\nsamples = 14\nvalue = 1.3"] ;
50 -> 51 ;
52 [label="squared_error = 0.0\nsamples = 8\nvalue = 1.5"] ;
50 -> 52 ;
53 [label="annual_anomaly <= 1.7\nsquared_error = 0.0\nsamples = 13\nvalue = 1.7"] ;
49 -> 53 ;
54 [label="squared_error = 0.0\nsamples = 7\nvalue = 1.6"] ;
53 -> 54 ;
55 [label="squared_error = 0.0\nsamples = 6\nvalue = 1.8"] ;
53 -> 55 ;
56 [label="annual_anomaly <= 2.3\nsquared_error = 0.0\nsamples = 9\nvalue = 2.2"] ;
48 -> 56 ;
57 [label="annual_anomaly <= 2.1\nsquared_error = 0.0\nsamples = 6\nvalue = 2.1"] ;
56 -> 57 ;
58 [label="squared_error = 0.0\nsamples = 3\nvalue = 2.1"] ;
57 -> 58 ;
59 [label="squared_error = 0.0\nsamples = 3\nvalue = 2.2"] ;
57 -> 59 ;
60 [label="annual_temp <= -3.1\nsquared_error = 0.0\nsamples = 3\nvalue = 2.4"] ;
56 -> 60 ;
61 [label="squared_error = 0.0\nsamples = 1\nvalue = 2.3"] ;
60 -> 61 ;
62 [label="squared_error = 0.0\nsamples = 2\nvalue = 2.4"] ;
60 -> 62 ;
}